<?xml version="1.0"?>
<opencv_storage>
<opencv_ml_svm>
  <format>3</format>
  <svmType>C_SVC</svmType>
  <kernel>
    <type>LINEAR</type></kernel>
  <C>1.</C>
  <term_criteria><iterations>100</iterations></term_criteria>
  <var_count>32</var_count>
  <class_count>6</class_count>
  <class_labels type_id="opencv-matrix">
    <rows>6</rows>
    <cols>1</cols>
    <dt>i</dt>
    <data>
      1 2 3 4 5 6</data></class_labels>
  <sv_total>15</sv_total>
  <support_vectors>
    <_>
      -2.23823168e-04 -1.85520225e-03 -6.88107859e-04 -1.38233600e-05
      -8.75221449e-04 -2.44941469e-03 -7.93545740e-04 -1.69574469e-05
      -7.61880423e-04 -3.55701684e-03 -7.30291998e-04 -4.14768074e-05
      -1.84462173e-04 -6.44761650e-03 -5.55473147e-04 1.20450586e-05
      -1.63848308e-04 -6.92237820e-03 1.67543229e-04 -8.42621375e-05
      -2.85283159e-06 1.06360922e-02 -3.22247826e-04 1.44042744e-04
      -1.02751888e-03 1.15644783e-02 -1.06051972e-03 2.68874137e-04
      -5.20276488e-04 -9.52989387e-04 -1.02394214e-03 5.92638253e-06</_>
    <_>
      1.66888800e-04 6.82631566e-04 3.27178539e-04 5.88544253e-06
      5.63987182e-04 1.72455935e-03 4.09682747e-04 2.14346110e-05
      4.93194035e-04 6.21718180e-04 2.15133259e-04 1.07772375e-05
      3.73585994e-04 -1.11173280e-02 2.89335119e-04 -1.56042574e-04
      5.77881525e-04 -5.86663978e-03 4.43942496e-04 -9.29867238e-05
      9.33291158e-04 6.92613423e-03 8.50350305e-04 7.63190910e-05
      1.87909216e-04 1.16017656e-02 2.98426196e-04 1.52883178e-04
      4.12873109e-04 3.37005564e-04 6.67378074e-04 2.94970359e-05</_>
    <_>
      1.42275503e-05 -1.56325207e-03 3.55688758e-06 -2.15547389e-05
      2.48982142e-05 -1.10263514e-04 1.06706630e-05 -1.45832382e-06
      1.77844379e-06 -5.44203795e-04 -1.06706630e-05 -7.29161957e-06
      3.02335447e-05 -6.81143953e-04 7.11377515e-06 -9.78143999e-06
      2.31197700e-05 5.42425376e-04 2.84551006e-05 7.89629121e-06
      2.31197700e-05 6.22455336e-05 1.60059935e-05 7.82515372e-07
      3.20119871e-05 1.86736594e-04 1.95628818e-05 -6.40239989e-07
      1.24491062e-05 3.20119871e-05 2.13413259e-05 7.11376842e-08</_>
    <_>
      -1.22065903e-05 -1.08909910e-03 -2.44131807e-05 -1.26677278e-05
      -4.06886329e-06 -2.22431190e-04 -6.78143897e-06 -2.92958180e-06
      1.35628773e-06 -7.83934316e-04 -1.35628779e-05 -1.09588045e-05
      -8.13772658e-06 -7.77152891e-04 1.35628773e-06 -1.01450323e-05
      2.71257545e-06 4.13667760e-04 4.06886329e-06 5.88628927e-06
      1.76317408e-05 -7.73084030e-05 2.44131807e-05 -2.30568889e-06
      5.42515090e-06 2.79395288e-04 1.49191656e-05 3.14658791e-06 0.
      -2.30568912e-05 8.13772658e-06 -5.42514584e-08</_>
    <_>
      1.06390740e-04 -3.14228376e-03 -9.97630879e-04 -9.94519723e-06
      5.37110493e-04 -8.69088620e-03 -8.21162132e-04 -5.43813403e-05
      1.42362039e-03 -1.15349516e-02 -2.16696717e-05 -8.03718285e-05
      1.37841131e-03 -2.42139753e-02 1.72968057e-03 -2.46611831e-04
      9.46926069e-04 6.82357000e-03 1.06144778e-03 2.37785076e-04
      2.01573921e-03 -1.58139095e-02 1.60932448e-03 -1.33648777e-04
      1.57918502e-03 1.98931806e-02 2.11859192e-03 2.18499568e-04
      2.17206916e-03 5.66427782e-03 1.54981110e-03 8.41616857e-05</_>
    <_>
      6.75470801e-04 4.43007099e-03 4.41182667e-04 6.86568164e-05
      1.98866543e-03 4.61549358e-03 1.39133539e-03 5.85836642e-05
      6.41132123e-04 8.65180977e-04 4.26564249e-04 1.70584699e-05
      9.58005723e-04 -7.07447529e-03 1.11802877e-03 -1.14037968e-04
      1.27517059e-03 -2.20578622e-05 6.74605893e-04 -4.08350497e-05
      1.34056294e-03 6.78127212e-03 1.02623459e-03 9.69530302e-05
      1.17326388e-03 1.03586707e-02 8.05250311e-04 1.52115390e-04
      7.25546386e-04 6.03753887e-03 1.41817983e-03 9.47781155e-05</_>
    <_>
      9.52655755e-05 -2.59982422e-03 2.55048017e-05 -3.47143105e-05
      1.06517015e-04 2.62656631e-05 5.40087567e-05 1.86043462e-06
      1.59775067e-04 -4.78544040e-04 6.37606208e-05 -7.44072395e-06
      1.25270031e-04 2.91080301e-04 1.28270112e-04 9.60688908e-07
      1.85278943e-04 4.65971930e-03 1.31270179e-04 5.64387919e-05
      8.92645039e-05 1.96551598e-04 1.01265730e-04 2.25398367e-07
      1.89779515e-04 7.84644100e-04 1.71026506e-04 6.90141360e-06
      1.68026425e-04 5.31840837e-04 1.65025427e-04 8.10136953e-06</_>
    <_>
      -1.51329650e-05 -9.60061210e-04 -2.18156565e-05 -1.11743266e-05
      -6.28688576e-06 -2.16749366e-04 -6.45193995e-06 -2.95038240e-06
      -9.18078149e-06 -7.18200637e-04 -1.33669146e-05 -1.00798316e-05
      -5.16399587e-06 -7.72167230e-04 -7.79414131e-06 -1.05182717e-05
      -4.58004615e-06 5.20579575e-04 -2.00481918e-06 7.96444147e-06
      2.18131390e-06 -1.86024627e-04 4.84722023e-06 -2.94859205e-06
      1.40072558e-07 1.43195532e-04 7.55489395e-07 1.61985645e-06
      -8.83187658e-06 -8.33025751e-06 4.26756424e-06 -9.83009372e-08</_>
    <_>
      8.84293404e-05 -4.35890281e-04 8.49021217e-06 -4.88726528e-06
      9.01435633e-05 -3.06866365e-04 1.51212180e-05 -8.44632893e-07
      1.91643237e-04 -1.03304326e-03 7.68815516e-05 -1.52996872e-05
      1.43538040e-04 -1.78372033e-03 1.60102514e-04 -2.48083761e-05
      1.98255235e-04 5.37185231e-03 1.26269835e-04 6.98082513e-05
      9.58449673e-05 -3.44172062e-04 9.43566265e-05 -2.16733565e-06
      2.29816578e-04 1.74349349e-03 2.18042900e-04 1.87244896e-05
      2.25437907e-04 9.50020796e-04 2.11225662e-04 1.32676269e-05</_>
    <_>
      1.12899550e-04 -5.65957930e-03 -1.08438384e-04 -7.82277421e-05
      6.36605255e-05 -7.70257320e-04 -1.01242302e-04 -7.37216487e-06
      1.30216926e-04 -1.82933756e-03 -4.18819836e-05 -2.34796644e-05
      1.24088561e-04 5.08948741e-03 1.63520701e-04 6.74283147e-05
      1.35277573e-04 8.59053899e-03 1.10420377e-04 1.24712722e-04
      4.00831523e-05 -6.63310115e-04 9.17720245e-05 -7.55279325e-06
      2.74255493e-04 -3.25021043e-04 2.51124147e-04 -8.22339643e-06
      1.22889222e-04 5.12501982e-04 -5.82632711e-05 8.54473228e-07</_>
    <_>
      -2.69032898e-05 -1.06866215e-03 -2.88707251e-05 -1.23016835e-05
      -2.38784360e-05 -2.65431212e-04 -1.47365690e-05 -3.68519909e-06
      -1.90399496e-05 -7.75532972e-04 -1.30703402e-05 -1.09047378e-05
      -1.58612929e-05 -5.22781629e-04 -1.18591188e-05 -6.77946673e-06
      -1.65438050e-05 5.55906503e-04 -1.15579132e-05 1.00618681e-05
      -8.83426492e-06 -3.35935416e-04 -1.04267911e-05 -5.07413415e-06
      -1.59413921e-05 -2.09865524e-04 -6.41821998e-06 -2.87771650e-06
      -1.39739586e-05 -1.08362976e-04 -1.04267911e-05 -1.60202114e-06</_>
    <_>
      6.13451703e-05 -2.71456758e-03 -5.73107915e-04 -2.91991691e-05
      -9.72681009e-05 -4.22282331e-03 -5.84233203e-04 -4.09982094e-05
      2.42209004e-04 -7.45996647e-03 -3.11507756e-04 -7.82647621e-05
      2.08833168e-04 -4.11420362e-04 5.45450894e-04 3.09939821e-07
      2.79693413e-05 1.56171955e-02 1.61472664e-04 2.70424440e-04
      1.05846280e-04 -7.07755005e-03 2.05973774e-04 -7.30514948e-05
      6.48437766e-04 1.50347385e-03 7.70815823e-04 -4.32518988e-07
      4.34198097e-04 2.03748723e-03 -7.50175459e-05 1.18624721e-05</_>
    <_>
      -3.08739021e-04 5.02894633e-04 -2.37134867e-04 2.73087880e-05
      -3.91298177e-04 -5.16219577e-03 -1.80552117e-04 -5.33441562e-05
      -2.35034953e-04 -2.88827199e-04 -2.51778285e-04 2.28779936e-05
      -2.09013175e-04 -3.00448388e-03 -1.42504374e-04 -8.50492870e-05
      -1.62924058e-04 2.83639249e-03 -9.84494473e-05 4.24115606e-05
      -4.05863044e-04 1.11349191e-05 -2.50207988e-04 -3.05941444e-06
      -2.30547928e-04 4.71545802e-03 -1.35203081e-05 7.94416919e-05
      -2.79796601e-04 -2.09915612e-04 -1.96965571e-04 2.10648068e-06</_>
    <_>
      -3.08121089e-04 1.86158959e-02 -5.46551077e-04 2.84098642e-04
      -3.81484162e-04 -3.50672053e-03 -5.46551077e-04 -1.43421412e-05
      9.35397911e-05 6.08954928e-04 -7.15271017e-05 4.51553788e-05
      1.11880559e-04 -1.23028690e-02 4.40178381e-04 -1.11253692e-04
      -4.18165699e-04 -1.50026521e-02 -7.15271017e-05 -1.35830705e-04
      2.03584394e-04 -1.41259674e-02 2.01767289e-05 -1.39168740e-04
      7.51990228e-05 2.89053493e-03 3.48474568e-04 9.68445602e-06
      5.86904527e-04 2.08352227e-03 5.13541454e-04 2.36597789e-05</_>
    <_>
      2.38891844e-05 3.01246159e-03 3.46943780e-05 3.11430704e-05
      2.02893152e-05 -1.37840238e-04 -3.75354466e-05 -3.18598467e-07
      1.78473110e-05 -2.18589121e-04 5.64150105e-06 -3.96012365e-06
      3.34677898e-05 -2.98996485e-04 1.26754157e-05 -6.53741881e-06
      1.74692177e-05 -8.00368260e-04 1.13933811e-05 -8.72884539e-06
      6.46982335e-06 -5.73771977e-05 -6.68158236e-06 1.06885591e-06
      3.39992221e-05 1.63825505e-04 7.64227570e-06 2.31579611e-06
      3.35579934e-05 1.82144373e-04 -3.64711150e-06 1.55057978e-06</_></support_vectors>
  <uncompressed_sv_total>30</uncompressed_sv_total>
  <uncompressed_support_vectors>
    <_>
      24. 61. 6. 9.20000017e-01 26. 72. 3. 1.24000001e+00 30. 101. 13.
      1.34000003e+00 27. 309. 18. 4.73999977e+00 35. 757. 25.
      1.03000002e+01 29. 244. 21. 3.11999989e+00 30. 523. 25.
      7.42000008e+00 28. 145. 15. 2.18000007e+00</_>
    <_>
      23. 64. 8. 8.99999976e-01 28. 80. 10. 1.27999997e+00 31. 91. 10.
      1.39999998e+00 28. 373. 26. 5. 33. 603. 25. 8.50000000e+00 37.
      282. 35. 3.46000004e+00 33. 453. 31. 5.80000019e+00 29. 131. 21.
      2.03999996e+00</_>
    <_>
      21. 53. 3. 9.59999979e-01 16. 56. 7. 1.13999999e+00 20. 61. 5.
      1.01999998e+00 33. 265. 21. 4.26000023e+00 34. 877. 27.
      1.21800003e+01 25. 343. 19. 5.01999998e+00 26. 460. 17.
      7.15999985e+00 26. 170. 20. 2.68000007e+00</_>
    <_>
      21. 68. 9. 1. 28. 73. 12. 9.80000019e-01 23. 64. 11.
      9.80000019e-01 29. 260. 12. 3.64000010e+00 34. 648. 22.
      9.43999958e+00 35. 360. 21. 4.59999990e+00 25. 347. 17.
      5.65999985e+00 25. 150. 17. 2.40000010e+00</_>
    <_>
      26. 125. 15. 1.77999997e+00 31. 92. 16. 1.25999999e+00 22. 62. 8.
      1.01999998e+00 36. 255. 21. 2.98000002e+00 33. 595. 29.
      7.80000019e+00 29. 309. 19. 4.61999989e+00 37. 439. 21.
      5.73999977e+00 24. 162. 17. 2.05999994e+00</_>
    <_>
      0. 0. 0. 0. 0. 0. 0. 0. 0. 0. 0. 0. 0. 0. 0. 0. 0. 0. 0. 0. 0. 0.
      0. 0. 0. 0. 0. 0. 0. 0. 0. 0.</_>
    <_>
      20. 100. 11. 1.51999998e+00 31. 77. 14. 1.01999998e+00 24. 77. 9.
      1.15999997e+00 28. 221. 20. 3.20000005e+00 27. 873. 18.
      1.34200001e+01 26. 99. 17. 1.62000000e+00 27. 115. 15.
      1.62000000e+00 22. 94. 10. 1.27999997e+00</_>
    <_>
      25. 67. 12. 9.59999979e-01 25. 67. 14. 1.10000002e+00 21. 77. 16.
      1.17999995e+00 29. 298. 22. 4.17999983e+00 36. 887. 28.
      1.27600002e+01 30. 142. 18. 2.20000005e+00 25. 151. 14.
      2.64000010e+00 24. 105. 15. 1.67999995e+00</_>
    <_>
      27. 81. 16. 1.17999995e+00 23. 60. 5. 8.60000014e-01 20. 71. 7.
      1.10000002e+00 33. 305. 22. 3.64000010e+00 28. 775. 26.
      9.81999969e+00 31. 143. 20. 2.18000007e+00 35. 211. 26.
      2.94000006e+00 30. 102. 12. 1.41999996e+00</_>
    <_>
      20. 73. 8. 1. 27. 66. 10. 1.01999998e+00 23. 74. 9. 1.13999999e+00
      31. 318. 19. 3.90000010e+00 28. 756. 21. 1.12399998e+01 27. 193.
      22. 2.83999991e+00 30. 386. 21. 5.09999990e+00 22. 147. 19.
      2.07999992e+00</_>
    <_>
      11. 28. 5. 4.39999998e-01 11. 40. 6. 6.39999986e-01 15. 56. 8.
      7.40000010e-01 13. 140. 12. 1.84000003e+00 17. 400. 11.
      5.09999990e+00 10. 86. 9. 1.20000005e+00 17. 142. 15.
      1.72000003e+00 16. 74. 14. 1.08000004e+00</_>
    <_>
      22. 61. 12. 8.99999976e-01 14. 52. 3. 8.39999974e-01 28. 113. 14.
      1.55999994e+00 28. 342. 16. 4.98000002e+00 29. 1209. 22.
      1.82000008e+01 19. 91. 11. 1.51999998e+00 24. 98. 14.
      1.29999995e+00 27. 68. 6. 1.</_>
    <_>
      21. 67. 11. 9.20000017e-01 23. 69. 10. 1.05999994e+00 25. 97. 9.
      1.38000000e+00 27. 517. 16. 7.76000023e+00 30. 1236. 27.
      1.65200005e+01 31. 128. 19. 1.86000001e+00 28. 138. 23.
      1.89999998e+00 27. 133. 12. 1.84000003e+00</_>
    <_>
      16. 53. 6. 1.01999998e+00 19. 58. 6. 8.60000014e-01 23. 100. 16.
      1.51999998e+00 34. 821. 24. 1.09399996e+01 28. 1131. 20.
      1.87800007e+01 27. 115. 13. 1.82000005e+00 24. 117. 22.
      1.79999995e+00 28. 90. 11. 1.22000003e+00</_>
    <_>
      4. 10. 0. 1.59999996e-01 3. 8. 0. 1.59999996e-01 4. 16. 1.
      2.39999995e-01 4. 136. 4. 1.86000001e+00 4. 158. 3. 2.27999997e+00
      3. 24. 3. 3.40000004e-01 6. 36. 5. 4.39999998e-01 4. 26. 1.
      2.80000001e-01</_>
    <_>
      36. 1916. 24. 2.75400009e+01 30. 335. 24. 5.57999992e+00 29. 1013.
      21. 1.50400000e+01 40. 1023. 34. 1.27600002e+01 35. 713. 25.
      9.23999977e+00 36. 540. 23. 7.05999994e+00 28. 478. 22.
      7.01999998e+00 27. 227. 12. 3.44000006e+00</_>
    <_>
      36. 2024. 30. 2.72000008e+01 27. 276. 23. 4.44000006e+00 29. 984.
      23. 1.53199997e+01 35. 948. 25. 1.21599998e+01 32. 601. 21.
      9.43999958e+00 22. 579. 19. 8.57999992e+00 33. 420. 23.
      6.69999981e+00 29. 227. 20. 3.31999993e+00</_>
    <_>
      25. 1625. 25. 2.28799992e+01 32. 341. 26. 4.28000021e+00 29. 788.
      21. 1.08599997e+01 25. 929. 26. 1.29600000e+01 34. 487. 21.
      6.28000021e+00 30. 576. 23. 8.30000019e+00 39. 592. 31.
      7.40000010e+00 36. 326. 30. 4.17999983e+00</_>
    <_>
      31. 1342. 22. 1.83600006e+01 26. 255. 16. 3.44000006e+00 29. 586.
      25. 8.23999977e+00 31. 804. 23. 1.18400002e+01 31. 596. 15.
      8.92000008e+00 27. 486. 15. 7.90000010e+00 29. 598. 24.
      8.39999962e+00 32. 257. 20. 3.59999990e+00</_>
    <_>
      35. 1274. 22. 1.80799999e+01 31. 275. 22. 3.88000011e+00 31. 603.
      22. 8.15999985e+00 32. 935. 24. 1.31000004e+01 29. 477. 22.
      6.57999992e+00 37. 473. 27. 5.88000011e+00 30. 572. 19.
      7.78000021e+00 32. 269. 28. 3.88000011e+00</_>
    <_>
      18. 1004. 13. 1.38999996e+01 17. 154. 10. 2.07999992e+00 21. 368.
      14. 5.11999989e+00 19. 638. 17. 8.47999954e+00 20. 290. 13.
      3.35999990e+00 16. 274. 10. 4.17999983e+00 19. 334. 10.
      6.09999990e+00 17. 144. 5. 2.01999998e+00</_>
    <_>
      0. 0. 0. 0. 0. 0. 0. 0. 0. 0. 0. 0. 0. 0. 0. 0. 0. 0. 0. 0. 0. 0.
      0. 0. 0. 0. 0. 0. 0. 0. 0. 0.</_>
    <_>
      33. 1954. 25. 2.80599995e+01 32. 424. 22. 6.23999977e+00 29. 666.
      26. 9.35999966e+00 31. 855. 21. 1.36800003e+01 34. 497. 23.
      6.55999994e+00 34. 397. 24. 6.01999998e+00 30. 160. 16.
      2.33999991e+00 29. 205. 15. 2.61999989e+00</_>
    <_>
      35. 2073. 29. 2.58199997e+01 33. 440. 26. 5.82000017e+00 29. 647.
      25. 9.89999962e+00 30. 874. 22. 1.29799995e+01 31. 402. 20.
      4.96000004e+00 31. 462. 18. 6.53999996e+00 23. 220. 15.
      3.51999998e+00 27. 219. 21. 2.98000002e+00</_>
    <_>
      37. 1083. 29. 1.29399996e+01 32. 338. 23. 4.17999983e+00 28. 733.
      23. 1.03400002e+01 33. 729. 27. 9.80000019e+00 24. 270. 15.
      4.44000006e+00 30. 425. 21. 6.03999996e+00 30. 202. 16.
      3.25999999e+00 29. 152. 21. 2.25999999e+00</_>
    <_>
      32. 867. 26. 1.02399998e+01 31. 244. 15. 3.44000006e+00 30. 669.
      20. 9.47999954e+00 34. 946. 25. 1.24799995e+01 31. 298. 22.
      4.15999985e+00 24. 339. 17. 5.15999985e+00 29. 247. 20.
      3.48000002e+00 29. 148. 15. 2.07999992e+00</_>
    <_>
      33. 338. 26. 5.44000006e+00 33. 375. 30. 4.82000017e+00 36. 1118.
      24. 1.58599997e+01 34. 1152. 30. 1.55799999e+01 32. 579. 23.
      7.48000002e+00 26. 389. 22. 5.71999979e+00 25. 259. 20.
      3.77999997e+00 25. 137. 18. 2.20000005e+00</_>
    <_>
      31. 254. 19. 3.75999999e+00 28. 225. 20. 3.51999998e+00 31. 589.
      29. 7.59999990e+00 34. 1376. 20. 2.00400009e+01 34. 510. 21.
      6.26000023e+00 26. 270. 17. 3.98000002e+00 29. 226. 17.
      3.07999992e+00 30. 168. 24. 2.14000010e+00</_>
    <_>
      33. 282. 17. 3.75999999e+00 32. 243. 22. 3.20000005e+00 25. 394.
      21. 6.23999977e+00 32. 1363. 23. 1.91800003e+01 36. 503. 26.
      6.51999998e+00 31. 481. 23. 6.44000006e+00 31. 261. 28.
      3.38000011e+00 32. 133. 22. 2.05999994e+00</_>
    <_>
      2. 10. 2. 1.00000001e-01 2. 18. 2. 1.80000007e-01 1. 22. 1.
      2.19999999e-01 1. 62. 0. 7.40000010e-01 2. 50. 1. 5.40000021e-01
      1. 48. 1. 5.19999981e-01 1. 16. 0. 2.80000001e-01 0. 6. 0.
      1.00000001e-01</_></uncompressed_support_vectors>
  <decision_functions>
    <_>
      <sv_count>1</sv_count>
      <rho>-6.8143461287333928e-01</rho>
      <alpha>
        1.</alpha>
      <index>
        0</index></_>
    <_>
      <sv_count>1</sv_count>
      <rho>-9.4769158694872924e-01</rho>
      <alpha>
        1.</alpha>
      <index>
        1</index></_>
    <_>
      <sv_count>1</sv_count>
      <rho>-9.7648096991853284e-01</rho>
      <alpha>
        1.</alpha>
      <index>
        2</index></_>
    <_>
      <sv_count>1</sv_count>
      <rho>-1.0959810947047854e+00</rho>
      <alpha>
        1.</alpha>
      <index>
        3</index></_>
    <_>
      <sv_count>1</sv_count>
      <rho>-1.5069436263683935e+00</rho>
      <alpha>
        1.</alpha>
      <index>
        4</index></_>
    <_>
      <sv_count>1</sv_count>
      <rho>1.1654727797127440e+00</rho>
      <alpha>
        1.</alpha>
      <index>
        5</index></_>
    <_>
      <sv_count>1</sv_count>
      <rho>1.0000000000211211e+00</rho>
      <alpha>
        1.</alpha>
      <index>
        6</index></_>
    <_>
      <sv_count>1</sv_count>
      <rho>-9.7280824166214286e-01</rho>
      <alpha>
        1.</alpha>
      <index>
        7</index></_>
    <_>
      <sv_count>1</sv_count>
      <rho>1.1418053590831854e+00</rho>
      <alpha>
        1.</alpha>
      <index>
        8</index></_>
    <_>
      <sv_count>1</sv_count>
      <rho>9.8941485054427569e-01</rho>
      <alpha>
        1.</alpha>
      <index>
        9</index></_>
    <_>
      <sv_count>1</sv_count>
      <rho>-1.0276490523313024e+00</rho>
      <alpha>
        1.</alpha>
      <index>
        10</index></_>
    <_>
      <sv_count>1</sv_count>
      <rho>1.1836465816766257e+00</rho>
      <alpha>
        1.</alpha>
      <index>
        11</index></_>
    <_>
      <sv_count>1</sv_count>
      <rho>-9.8574951698789293e-01</rho>
      <alpha>
        1.</alpha>
      <index>
        12</index></_>
    <_>
      <sv_count>1</sv_count>
      <rho>-1.0000004014683015e+00</rho>
      <alpha>
        1.</alpha>
      <index>
        13</index></_>
    <_>
      <sv_count>1</sv_count>
      <rho>9.6545206147368412e-01</rho>
      <alpha>
        1.</alpha>
      <index>
        14</index></_></decision_functions></opencv_ml_svm>
</opencv_storage>
